29 100
language 0.040627994 0.055411603 0.049960352 -0.05193159 -0.06637854 -0.06991215 -0.006808422 -0.012564587 -0.025480976 0.006655531 0.07356405 0.04226065 -0.007766059 -0.0743765 0.074893504 -0.027972264 0.020049084 -0.0524761 0.0023348336 0.02160914 -0.05632791 0.085482284 -0.04010492 0.120679066 -0.011354374 0.090071134 0.09653585 -0.08473959 0.06050558 0.037371345 0.06985499 0.041005544 -0.09493233 0.012877086 -0.05679292 0.05387492 -0.031236168 -0.07644636 -0.12550716 -0.036106046 -0.041445345 -0.08503301 0.01855809 -0.09175959 -0.099935986 -0.066595815 0.024537124 -0.099064924 0.025580343 -0.11545562 0.03171401 0.06821658 -0.06616889 0.010601132 0.029167416 0.02103893 -0.11002906 -0.076939955 -0.058856815 -0.04477418 -0.021906056 -0.11987853 -0.016223457 -0.008344008 0.02681261 0.04387953 -0.03757957 -0.108533315 0.066706546 0.0953184 -0.018444825 -0.0093232365 0.0013836229 -0.053769503 0.015180754 0.036356695 -0.023742387 -0.06726351 -0.03339515 0.027434444 0.014573917 -0.009363535 0.08043103 0.07209355 0.01806556 0.0017831303 -0.06946052 -0.01074021 0.023938691 0.013165025 -0.021579387 -0.11232897 -0.024077551 0.03508972 0.12831646 0.081770636 0.035510466 0.084882356 0.060275737 -0.018618496
nlp 0.012574112 0.07539445 0.044412617 -0.028696604 -0.04914538 0.08642214 0.09657878 -0.050779656 -0.1795953 0.09878713 0.09261084 0.0861777 -0.014588125 -0.01169999 -0.07680726 0.065576866 -0.092806906 -0.12458785 -0.013957398 0.04251897 0.021813676 -0.01269415 -0.004768885 -0.04464902 0.067447685 -0.06449932 -0.044199392 0.03178803 -0.05332492 -0.08658334 0.04087279 0.03710163 -0.084255785 -0.077193104 -0.13365181 0.017488956 -0.0955871 0.007021299 -0.1396592 -0.031946078 -0.08632177 0.034810048 -0.027081775 -0.030122854 -0.02908537 -0.016178729 0.03439551 0.03844095 -0.02198741 -0.1498358 -0.018059576 0.058761567 -0.06983039 0.064842835 0.088105 -0.05845216 0.032981753 0.03225707 0.058280263 -0.097778015 0.008890802 0.043971952 0.07366723 0.037692424 -0.018778581 0.10260167 -0.0018934286 0.038711067 -0.122555524 0.078196034 -0.0072203004 -0.062348206 -0.0987734 -0.030027525 -0.026497694 -0.03834913 0.013030782 0.0006167921 0.008971994 2.7574344e-05 -0.014293696 -0.080020964 0.013658777 0.088062674 0.024351135 -0.032760665 0.009355539 -0.038382202 -0.051833175 -0.08709979 0.07541306 -0.057951376 0.01643617 0.009288206 0.020888425 -0.08345766 -0.053609457 0.04548378 0.101484165 -0.109363355
natural -0.11344836 0.017852688 0.007477951 -0.010536264 0.032097027 0.05752843 0.024161054 -0.06450853 -0.033504225 0.107464574 0.12128901 0.052939698 0.028001605 0.033482797 -0.042019755 -0.07307509 0.026159521 -0.056646574 0.035244465 -0.015613828 0.022458626 -0.07347977 0.09565187 -0.062974826 -0.012051722 0.02396762 -0.003957418 -0.037015826 -0.07764079 -0.101065785 -0.0076959636 0.045974057 -0.039343752 0.0019095512 -0.08112733 0.028396536 -0.111768246 -0.010104843 -0.08263391 0.044828564 -0.07006479 -0.048286755 0.01824652 -0.10110196 0.045785524 -0.023219377 0.094686806 -0.0016267947 -0.04736242 -0.08485393 -0.11080005 0.06021486 -0.053025827 0.06086357 -0.009402097 -0.1093855 0.01607673 0.05328405 0.034179326 -0.024748538 0.12004108 0.019754922 0.003510219 0.023756178 0.035460744 0.10579704 -0.09336228 -0.09468336 -0.044304747 -0.085999444 -0.034525767 0.0023720937 -0.0041405335 0.09383395 0.04325309 0.01666794 -0.09059528 -0.0096350815 0.09514818 0.081342116 -0.057965867 0.005759334 -0.09998861 0.044769913 -0.04088511 0.019236147 -0.11178161 -0.009828311 -0.083548024 -0.038967993 0.10462522 -0.093157284 -0.08901179 0.002743059 0.0859282 0.0280656 0.049301233 -0.020742284 -0.040437676 -0.034952845
processing -0.037530567 0.07872962 0.09844841 -0.071150914 -0.04441899 0.022562817 -0.008464617 -0.12793434 -0.07763422 0.093566485 0.106386624 0.023147292 -0.15063788 0.06692213 -0.09628308 -0.058438785 0.0967021 -0.0014569854 -0.11580059 0.028726786 0.06897624 -0.016021641 0.020091563 0.0071791136 0.07214794 -0.055742975 -0.02018226 0.12076493 0.07211757 -0.001839532 0.073363595 0.08731172 -0.015631488 -0.07636581 -0.017584492 -0.038620368 -0.09874223 0.05284472 -0.04711973 -0.008240273 0.0127182035 0.016583012 0.083407775 -0.0061728517 0.035064895 0.014691606 -0.08413669 0.05485415 -0.059560467 -0.08255966 -0.04468045 0.06358851 -0.10214564 -0.029389348 0.01629439 0.05797135 -0.040723518 0.08453087 0.03818598 -0.10948066 -0.02358384 -0.026340144 -0.027264256 0.025071003 0.13785456 0.067409895 -0.08792363 -0.06545977 -0.0009701171 0.102675535 -0.032092724 0.08013152 -0.09719545 0.031221705 0.0135595715 0.009416807 -0.0038184002 -0.08251055 -0.08359468 0.039376292 -0.055349465 -0.115425006 0.045112364 -0.045172323 0.074636385 -0.0012009571 -0.0073193526 0.020380463 -0.032482874 0.06141784 0.015329444 -0.099466264 0.04332029 -0.05163991 0.08618372 0.04190168 -0.05002569 -0.037767924 0.09549932 0.0751713
is 0.061058972 -0.12772426 -0.05320679 -0.08487658 -0.12546045 0.008987951 0.009686764 -0.0721079 -0.05073683 0.066982895 0.0031531707 -0.03266627 0.03642181 0.06115077 0.026202915 -0.010845578 -0.10617126 0.11258276 0.0171002 -0.0685028 0.026030412 -0.102531485 0.020375917 -0.074161924 0.010976184 0.08638999 0.009168106 -0.08099276 -0.07512349 -0.08306167 0.081325695 0.004642125 0.0063505657 -0.05238541 -0.06942282 0.0103252465 0.05597762 0.03158782 -0.03671356 0.027820198 0.0025167926 -0.09325853 -0.0206006 0.01948792 0.009418855 0.027279768 0.023529677 -0.016676554 0.10759578 -0.0499076 -0.06008997 0.033993825 -0.028039943 -0.05194335 -0.019890498 -0.061458707 -0.048911113 -0.056445554 -0.044736773 -0.04105301 0.017290812 -0.07170207 0.039405767 -0.04183145 0.028194634 0.024545003 -0.031440187 0.007922962 0.05794289 -0.0433061 -0.12822522 -0.073181994 0.0015541797 -0.010333879 0.0743481 0.01673615 0.060083777 -0.01831772 0.015346805 0.042956706 0.06460298 -0.11309049 0.015216042 0.041611638 0.039725527 -0.037382685 -0.09218736 -0.07032949 0.11292737 -0.05614289 -0.0026450444 -0.058638647 -0.009005163 0.05361723 0.040493164 0.033999868 0.072830796 0.04685646 -0.041393697 -0.10326159
a 0.07826909 0.03831318 0.047875915 -0.07860771 0.024537357 0.07291416 -0.057630368 -0.046588697 -0.095104456 0.11048565 -0.047096428 0.010958954 -0.001845716 0.09751982 0.034701064 0.080593795 0.038876984 0.040537946 0.014320869 0.049655568 -0.050342534 -0.06293119 0.06618454 -0.04671278 -0.051384248 -0.0593546 -0.04407883 0.03795463 0.056519166 0.0068057803 -0.072267845 0.08030899 0.027775338 -0.049066078 0.057201512 -0.025560528 0.03794199 0.0849544 -0.048872795 0.018069386 -0.084341444 -0.047222547 -0.020269267 0.027501106 -0.044510305 -0.0006886305 -0.11705791 0.018864313 -0.020054536 -0.011542835 0.013796672 0.07568979 -0.017672898 0.04443165 0.044743698 -0.034715977 -0.049669754 -0.008949328 0.035415 -0.052048054 -0.009388298 -0.061368138 0.065284416 -0.033555325 0.09475464 0.067847155 -0.07193581 0.038424704 0.053321224 -0.02977162 -0.04553356 -0.03593791 0.030804802 -0.024162002 0.1414525 0.045072637 0.048333406 -0.07869897 0.017227411 0.0074240947 0.011114664 -0.0339678 0.0014380973 0.014734536 0.15027046 -0.092203125 -0.08705101 0.011977025 -0.021696977 0.060487606 -0.021802071 -0.014936758 0.13860874 -0.00074765197 0.024228014 0.0040141107 0.014650537 0.045936033 -0.006990631 0.0743301
fascinating -0.0307808 -0.080276184 -0.030673418 -0.09499585 -0.03648835 0.12519543 0.06462436 -0.016288742 0.011281088 0.026018212 0.09927073 -0.11467154 -0.13677779 -0.033622723 -0.045225147 0.05078521 -0.020722859 -0.044754997 0.0130063165 0.04646729 0.057236377 -0.11059037 0.015241661 -0.043395147 0.035286583 -0.030847766 -0.024639409 0.024049329 0.07684969 -0.0018481257 0.01656401 0.018995175 0.030282475 -0.107013725 0.023256477 -0.016212298 -0.0011863909 0.028191032 -0.0024273847 0.05147105 -0.067806564 0.03302895 -0.001665322 0.06734463 0.02529917 0.08329283 -0.05977462 0.025534643 -0.085979566 -0.0025851473 0.010287486 -0.037005644 -0.06925862 0.07260418 0.024561742 -0.11498203 0.02275075 -0.032823324 0.13988319 -0.01412768 0.029470233 0.08180823 0.007952114 -0.013222486 -0.010265505 -0.015239912 -0.015160734 0.10616726 0.04766406 0.107295915 0.013555441 -0.069300584 -0.052995794 0.08497706 0.08321174 -0.030593779 0.11958857 -0.11723089 0.009718674 0.03195019 -0.083631195 -0.08067082 0.018170267 -0.008161101 0.09755703 -0.12169364 -0.022182686 -0.054380737 0.07219512 -0.020252993 0.01693274 0.07203506 0.10825799 -0.0597436 -0.042059064 0.012098551 -0.07456573 0.031954393 0.037330046 0.074294046
field 0.08248626 -0.10494266 -0.11839147 0.062179774 -0.086929984 -0.010531428 0.020257631 -0.0906777 0.013529715 0.01614208 -0.06641212 -0.01834938 0.006354815 0.07233381 0.032550532 0.037790716 -0.06883742 0.04597962 0.08122082 -0.0355397 0.043207645 -0.08585393 0.092443645 0.032524556 0.037703488 -0.00427004 0.04783065 -0.019018214 -0.102208726 0.03664476 -0.013805947 -0.048083574 0.080055796 -0.004143077 0.019392336 0.034271482 0.029418094 0.069621824 -0.0829148 -0.06702944 0.016666675 0.018179659 -0.061201036 -0.02045737 0.068233356 0.031739715 0.054975986 -0.016740302 0.0020878143 0.014621468 -0.06455962 -0.061496146 -0.07688607 0.05429081 -0.10218032 -0.08805392 -0.025615077 -0.04609096 0.14242655 -0.087655425 0.08201532 -0.062040936 0.06846899 -0.11327284 -0.0424267 -0.040686183 -0.02895719 -0.050648622 0.08994725 0.004210384 -0.09334784 -0.024500113 -0.032712035 0.124148965 0.039680064 -0.100749604 0.017416283 -0.057389393 -0.01930112 -0.052955125 0.08849664 -0.005769502 -0.046326417 -0.038023736 -0.030512331 -0.06970642 -0.06042815 -0.047902096 0.092964165 -0.04920343 0.06756042 0.039715085 0.08919518 0.0022196448 -0.055210385 0.0096006645 -0.020172082 -0.13573551 -0.041523565 -0.11528197
of 0.034861103 0.03030414 -0.14368834 0.010962973 -0.02012967 -0.021213932 -0.08523832 0.022315377 0.03528768 0.11677616 -0.10787968 0.016093249 -0.0065266313 0.09528538 0.0015681658 0.056993708 -0.019274553 0.062022362 -0.02050921 -0.092336975 -0.05345413 -0.0007101743 0.002015023 -0.092040434 0.046262976 0.039902214 0.0027778172 -0.025124066 0.007544034 0.024297379 -0.024844423 0.063847736 -0.009420875 0.00079696556 0.039801944 0.10914703 -0.025695208 0.13308895 0.05999851 -0.09610769 0.0459391 -0.056381777 0.044516314 0.08202692 0.079096705 0.004853797 0.015828377 0.06475185 -0.05041702 0.069615945 -0.028852236 -0.04072756 0.009254989 -0.05184847 0.022912106 -0.033890996 0.082199804 0.04346649 0.050073832 -0.0450785 -0.019570144 -0.08519652 0.033527136 -0.1461328 0.00035432645 -0.04185586 -0.012882697 0.0001087861 0.09241954 -0.09707962 -0.10776812 -0.06839902 0.027680056 0.047975346 0.061840855 -0.1023896 0.050420266 -0.04734588 0.04847384 0.017627845 0.09171118 0.036166582 -0.038525734 -0.020431856 0.07814817 -0.11861971 -0.06442441 -0.07165017 -0.01715743 0.028246414 0.099214956 0.104218714 0.05797565 0.009400426 -0.07431983 0.005483559 0.0006250399 -0.123050176 -0.06840632 0.0058638267
artificial -0.012176265 -0.03252834 -0.09326644 0.075770274 -0.12337217 0.022966584 -0.0299684 0.046938173 0.08060825 -0.008364939 0.052117 -0.017343597 -0.022076303 0.043753676 -0.09627595 -0.0865684 0.0057444316 -0.020213643 0.06372332 -0.029209023 -0.038965713 0.028056744 -0.008539694 -0.073428646 -0.044549152 -0.06916014 -0.0005819933 -0.060665816 0.023623787 0.100451246 0.054607835 0.07276687 -0.019468063 0.06457276 0.121571675 0.03854052 0.08583513 -0.041034795 0.027775869 0.05188901 -0.032021683 -0.05091262 0.038241312 0.009318741 0.11286116 -0.043769304 -0.09903364 -0.010664915 0.053149827 0.08335296 0.10385752 -0.0037396993 0.007417105 0.019629817 -0.04290721 0.01831342 -0.0017833246 0.018582577 0.12114184 0.032939266 -0.029983623 0.07855614 -0.051518425 -0.05502612 -0.01795 -0.07353869 0.12165238 0.026918733 0.06375832 -0.07229427 -0.04585816 0.029481195 -0.062701 -0.007842919 0.0297616 -0.09639157 0.019050933 -0.089820005 0.057941355 0.11015607 -0.032509435 0.05009751 -0.02080001 -0.09970762 0.03880277 -0.11865134 0.042325646 -0.12281672 -0.030578243 -0.06486872 -0.06519342 0.11022794 0.043997195 -0.009164011 -0.02315339 -0.0016941847 0.007387181 -0.066748165 -0.05748407 0.024419216
intelligence 0.04978828 -0.02022006 -0.0025239321 0.0796792 -0.046608873 0.034484215 -0.07230344 -0.020126801 0.076005 0.027932528 0.085140444 0.043508355 0.08285246 0.015285662 -0.033218756 -0.0069319448 0.029511297 0.123902425 0.049686413 0.082547896 0.018412976 -0.026714696 0.078968674 0.021411644 -0.03541096 0.044933848 -0.047926832 -0.029084504 -0.06487384 0.0056867846 0.07884495 0.06761372 0.0005976914 0.023649426 0.069669046 -0.043726582 -0.005683231 -0.035742264 0.06764318 0.008367565 -0.0052706786 -0.007431208 0.012322609 0.065958835 0.106241725 0.07599507 0.028972927 -0.008062279 -0.067852944 0.096968606 -0.0491156 -0.03826922 -0.08267947 0.0484812 -0.07523558 0.08250889 0.04692378 0.013251986 0.011234305 -0.022630567 0.04716937 -0.014595028 0.006499527 0.020987904 0.0003094868 -0.054056823 0.08285208 0.0687729 0.054180842 -0.03269817 -0.014338776 -0.024195807 -0.05566071 0.12608074 0.04007976 -0.13848528 -0.12992238 -0.047697786 0.02511466 -0.0012402979 0.013147667 0.050056756 -0.0024005151 -0.045295242 -0.057545047 -0.027924139 0.01175592 -0.04294364 0.052502338 -0.12518367 -0.030288396 0.116841644 0.031808898 0.119743414 -0.12541406 -0.029621005 0.027531335 -0.10069696 -0.05114107 0.02429898
it -0.03168094 0.07026866 -0.0297257 0.08824503 0.016181707 -0.055810567 -0.004384723 0.036541242 0.046807494 -0.017140541 0.07284141 0.010642995 0.04194572 0.042956147 -0.090302 -0.013831121 0.0199222 0.038935337 -0.026035378 -0.020533703 0.05864096 -0.035150867 0.023773944 -0.01612317 0.10807974 0.12156621 -0.009928852 -0.002183453 -0.12984648 -0.024508223 -0.015113346 0.0906854 0.020122534 0.07186215 -0.015028961 0.01913737 -0.10128349 0.12171801 0.13646472 -0.037544057 0.11789212 -0.0953669 -0.0002787587 0.11677434 0.12134356 0.11777216 0.031296182 0.049804296 0.01909611 0.07269719 -0.06350516 -0.14589784 -0.050787997 0.040391594 0.021066016 0.051139668 -0.0013106694 0.067472875 0.0742147 -0.007901991 -0.027497014 0.022360755 0.050440874 -0.0016521482 -0.019786026 -0.099361524 0.00767702 0.1006722 -0.0047956724 -0.08061332 -0.074549675 -0.07312388 -0.017676385 -0.010009299 0.028841835 -0.085400686 0.012723828 0.03491102 0.06519916 -0.009532523 0.03407194 0.038521364 0.047137674 -0.08811147 0.017507015 -0.027710676 -0.04613027 -0.06438759 0.019732203 0.010499034 0.023353517 0.073439956 0.04401782 0.007934607 -0.07918081 -0.0067818076 -0.110397816 -0.077961855 0.058220163 0.034533955
allows -0.036813334 0.0949897 -0.060986973 0.1210496 -0.054021038 -0.029890852 -0.040865254 0.05043857 0.054270428 0.026631577 -0.04863112 -0.057279043 -0.006149711 0.02497851 -0.06704483 -0.044374075 0.05888714 0.034639493 0.12727953 -0.04208747 0.082138784 0.023872394 -0.10473156 -0.032609943 0.06669546 0.027018223 -0.007281365 0.049331944 -0.034312237 -0.101202525 0.0014298719 0.07966128 -0.060412377 0.07346869 -0.05983365 -0.059676353 -0.017160373 0.05771187 0.013543387 0.008032048 0.058022793 -0.047594678 0.07661017 0.09546425 0.09218172 -0.005928228 -0.017912675 0.05593062 0.085996784 0.041551873 0.0068035997 -0.020853084 0.03079208 -0.06589637 0.06306211 -0.06819693 0.0603074 0.1177762 0.044424232 0.005129694 -0.025975717 0.114108786 -0.120720625 0.025483536 -0.043653946 -0.05737563 -0.0273072 0.10828402 -0.11032783 -0.11687995 -0.05407025 -0.009502941 -0.019109683 -0.052568994 -0.08802575 0.0073123565 -0.0191804 -0.034283698 0.025989383 0.07414933 -0.047673702 0.12924102 -0.030244144 -0.1217943 0.059090417 -0.020536076 0.014861826 0.003425417 -0.02007988 0.024674637 0.0018768403 0.042940594 -0.01734999 0.049454994 -0.00014047179 -0.039302383 -0.08663598 -0.07793855 -0.028191049 0.0407135
machines 0.03159688 0.120699644 -0.032589484 0.06262578 0.07606904 -0.027548889 -0.054574564 0.030638987 0.092937104 0.11231003 -0.0942751 0.08533843 0.09055604 -0.118510775 -0.04259473 -0.00066515687 0.081424475 -0.0083427355 0.039919697 0.023065977 0.008977576 0.020193757 -0.05048958 0.029910333 0.096220694 -0.02100584 -0.03399883 -0.03752794 -0.079754196 0.075995065 -0.00374122 0.042082585 -0.02497957 0.043245047 -0.030767072 -0.019989666 -0.049030222 -0.00015047405 -0.03998216 0.026465982 0.023024995 -0.047324583 0.10016656 0.06818242 0.053559452 -0.087910526 0.009181222 0.017145898 -0.056295544 0.03893773 0.01059162 -0.06916517 0.02223423 -0.005901314 -0.069169976 0.019421153 0.00909832 -0.044018563 -0.098418474 0.030260298 0.045622174 0.06421507 -0.051247522 -0.06153244 -0.057900354 -0.08743156 -0.058323048 0.083742686 -0.0049003926 -0.08702563 -0.029820783 -0.08831639 0.014685442 0.105338834 -0.0050679026 -0.083711505 -0.10933384 0.05488237 0.053048186 -0.064862594 0.0010397772 0.09132933 -0.0030688983 -0.021688875 -0.02331817 0.08971033 0.05843463 0.012055614 0.0372611 -0.030877601 0.013041411 0.019223984 0.013117034 0.104878165 0.013003133 0.028330192 0.009040647 -0.09482199 -0.07623823 -0.08123899
to 0.020544205 0.058295287 0.004432915 0.054436244 0.072648495 -0.06888832 0.017466838 0.03040457 0.077738464 -0.040340003 0.024060609 -0.033190954 0.058700275 -0.05526859 0.046679147 -0.07128265 0.11001815 -0.04830942 -0.07466869 0.10376003 -0.020388985 0.022906024 -0.014952088 -0.0519514 0.07918906 0.09876928 -0.022417923 -0.040668163 -0.03356471 0.0044042296 -0.027292786 -0.03085665 -0.035388656 0.04487147 -0.10313767 0.062042005 -0.021181023 -0.09102107 -0.019732896 -0.07651511 -0.092144765 0.0637192 -0.008655126 -0.045877 0.025502844 -0.008304965 0.1369961 -0.025805026 -0.02411111 -0.060429994 -0.0051209955 -0.039465606 -0.01497293 0.09060914 -0.08041856 0.06833189 -0.074616745 -0.009138956 -0.09767868 0.041608833 -0.030177912 0.004388063 -0.06429977 0.069248274 -0.07984458 -0.082082435 -0.116621114 0.012851067 0.005200957 -0.03643498 0.008343979 0.037646547 0.05994685 -0.04067947 0.02709528 0.0025599406 -0.06996078 -0.055240363 0.035130538 -0.043334845 -0.02481467 0.009412531 0.101349995 -0.013736426 -0.091535605 -0.038038347 -0.016386481 0.08649043 0.06339291 0.012852377 -0.04572126 -0.026813917 -0.092716895 0.08130062 -0.08755037 0.05016435 0.03226932 0.0744511 0.08745581 0.02895843
understand 0.047199458 0.042040136 0.008328872 -0.010119723 0.05989358 0.09148146 -0.08103488 0.012705071 -0.049948428 -0.055985145 0.031737316 -0.038303375 -0.027708512 -0.03595386 -0.035518672 -0.052368235 0.1017529 -0.076038346 0.05174539 0.033255085 0.066739805 0.01729107 -0.043281205 0.030618694 0.06531023 -0.0072059603 0.026143037 0.03566477 -0.047635883 -0.04738782 0.0012680666 0.03960183 -0.08893026 0.07648414 -0.044913046 0.014481152 -0.047624502 0.009589493 -0.0724232 -0.048474018 -0.045805335 0.040417716 0.067319684 -0.045690656 0.025383703 -0.041519538 0.112939805 0.06753393 -0.00019043137 -0.06291812 -0.028405497 0.009159856 0.10144505 0.04411556 0.026687745 -0.107161656 -0.0333545 0.09840621 0.066418216 -0.027948933 -0.021207636 0.04728088 -0.13800304 0.10090864 -0.022126006 -0.015860114 -0.108178325 -0.08857685 -0.04895967 -0.06986058 -0.046954922 -0.013088193 -0.044115357 -0.03562581 -0.042225357 0.022903945 -0.060703944 -0.038187936 0.050113767 0.07186438 -0.115444474 0.028385252 -0.09084328 -0.03275271 -0.040304855 0.06586507 0.015219996 0.035757124 0.03614794 -0.020162163 0.023117254 0.015038647 -0.098519064 -8.5535634e-05 0.063697994 0.05007215 0.06897764 -0.051060114 0.0939855 0.061779995
human 0.09959176 0.067942396 0.13682851 0.04966819 0.108943805 -0.034517102 0.031143654 0.051862348 -0.03447341 0.0803769 0.0013283724 0.09314698 0.078547426 -0.01692965 -0.044133186 -0.03494828 0.070869185 -0.022500996 -0.033498965 0.08989038 0.030370375 0.012620424 -0.04227001 0.0057183583 0.02676617 -0.09643178 0.03323159 0.009322722 0.015926877 -0.06301064 -0.010165056 -0.008240876 -0.052657273 -0.09063863 -0.018571936 -0.0112560075 -0.028640738 0.00082477677 -0.14731096 -0.009939688 0.022845639 0.06676792 0.03935954 -0.057835467 0.048941158 -0.101406716 -0.014834792 0.0601499 -0.1031846 0.008898737 -0.08971235 -0.069571964 0.061566006 -0.010658038 -0.041121826 -0.061616186 -0.026587382 -0.009298923 -0.04618655 0.042854108 0.008480206 0.042359095 -0.10983868 0.04493637 -0.053108115 0.006483611 -0.05241536 -0.060918014 -0.032807507 -0.048277367 -0.06898281 -0.010006623 -0.027395561 -0.00017534645 0.016342664 -0.08847716 -0.08957413 0.11519301 -0.011809897 -0.08093615 0.041984726 0.029939068 -0.035086766 -0.038089864 0.04711554 0.042892255 -0.011529745 -0.036699638 -0.060687736 0.07267132 0.10164057 -0.12510407 -0.019292492 0.0037328065 0.097748354 0.060093865 0.0036944367 0.008377482 0.009778823 -0.060157277
with 0.030297417 -0.022214685 0.043637592 -0.04253969 0.03024922 0.10822256 -0.028821722 -0.046409525 -0.09074016 0.034797084 -0.0038004525 -0.009256371 -0.10159835 0.05422294 -0.0016015145 0.0073199957 0.06188463 -0.027318979 -0.10846158 0.07879802 -0.035334624 0.049989134 -0.043080572 -0.0066728503 -0.0037603527 -0.0084034875 0.037907515 0.08027989 0.016126368 0.043345958 -0.0012482773 0.03148511 -0.06803283 0.10689172 -0.04450699 0.08692128 -0.068579376 -0.04295042 0.01683363 -0.07617055 -0.09042842 0.08193141 -0.004209104 -0.00980552 -0.017503722 -0.055353627 0.0009902728 -0.0276164 0.05366573 -0.04578868 0.10729167 0.12395084 0.054006305 -0.0030845385 0.12098843 0.03438645 -0.08402384 0.024814673 0.0060975445 -0.044991415 0.030144513 -0.05268601 0.003852959 0.07990756 0.11870479 0.12082251 -0.008270843 -0.065144226 -0.099925354 0.07313064 -0.05055125 0.089997984 -0.09517263 -0.006839351 -0.0477678 0.078825176 -0.042941034 -0.10544072 -0.009721252 0.078928605 -0.100491144 0.030358568 -0.043521386 0.01577993 -0.0030229155 0.044967145 -0.05947455 0.042634297 0.09970389 0.051252406 -0.05529846 -0.07640597 0.009657114 0.12434827 0.060760003 0.037386063 0.12558746 -0.0053033065 0.059488233 -0.040270593
applications -0.017029818 0.039523367 0.014967977 -0.06394854 -0.0021577908 -0.02985245 0.0076448927 0.0055577112 -0.051199287 -0.05301822 0.018090248 0.07960349 -0.0011145195 -0.062046632 -0.005152248 0.026088102 -0.006815572 0.007301962 0.07985476 0.035703644 -0.01639831 0.026005905 0.07374785 0.12481714 -0.026192557 -0.037218187 -0.024032898 -0.00473636 0.05974339 0.047439773 0.12406873 0.036988407 -0.0959179 -0.038621776 0.04239259 -0.033589818 0.12666877 -0.0331652 0.05283759 -0.05670472 0.021977581 -0.00044713123 -0.1226563 -0.08675497 -0.0058758375 -0.060235787 0.05608151 0.015254742 -0.0048005814 -0.0026828228 0.031033432 0.0007276265 -0.044214766 -0.10088953 -0.027164364 0.011200516 0.007899352 -0.054651316 -0.06850008 -0.088762365 -0.085402355 -0.053051647 0.1116068 0.08807687 -0.058562487 0.123383194 0.07474689 0.081013665 0.051162273 0.086694814 0.018606396 -0.049209293 -0.024418505 -0.07885165 0.06812549 0.020975826 0.09400827 0.00951814 -0.06564522 -0.06426668 0.09475168 -0.06909492 0.105410375 0.06714908 0.12384367 -0.022572467 0.06533814 -0.0346896 0.017282978 0.0038876748 -0.08696514 -0.041079976 0.031201145 0.06056294 0.11227144 -0.061982457 0.10315453 0.115908764 0.02432582 -0.04389996
like 0.022516586 -0.04640042 0.115315214 -0.05797147 0.0059287255 0.10915958 0.0070090387 -0.058427326 -0.025295774 0.06036568 -0.10549384 -0.01977483 -0.04575835 0.05768475 0.039609905 -0.06760709 0.07715823 0.10122095 -0.046062782 0.015767662 0.04772529 0.042389754 -0.11990259 0.050590977 -0.007814519 -0.024739705 0.051600114 0.083595626 0.04025143 0.10507566 0.016801657 0.03512224 -0.09127807 0.06525103 -0.02979175 0.10462585 -0.0035008546 -0.014579794 0.016823724 -0.01439628 -0.028357532 -0.053101506 0.030362315 0.06384509 -0.017899051 0.0568078 0.03740381 0.003168218 0.08133945 -0.0054436508 0.11564663 0.11101008 -0.052350745 -0.104672894 -0.016723655 0.08439712 -0.029311273 -0.14064133 0.028987728 0.009885905 0.004450601 -0.012752866 0.03815093 -0.032918252 0.04672347 0.09423163 0.007090238 0.12129744 -0.022255955 0.05287096 0.040626418 -0.03047579 -0.06596578 -0.06879683 -0.052979723 0.15083753 0.015649958 -0.06168305 -0.017774774 -0.023193236 -0.038873747 -0.08049901 0.12820363 -0.021684429 -0.033150155 0.05682654 -0.0028147767 0.10838684 -0.02492994 0.06286844 -0.056898944 -0.044871047 0.005392616 0.037301004 -0.062061593 0.07345922 0.038149055 0.031971786 -0.012901973 -0.085637085
chatbots 0.048763245 0.010009551 -0.015024683 0.007943443 0.024846962 0.0056829564 0.060190756 -0.017721212 -0.12108188 0.0030076785 -0.08874668 0.057401832 -0.07053619 0.013779298 0.010636726 0.056082807 0.09108123 -0.0010725688 -0.030579858 0.0179923 0.05976816 0.006116333 -0.017665148 0.011546255 -0.029559502 0.0018877757 0.013711895 0.09911048 0.040550742 0.08710377 -0.09044611 0.019260231 -0.03829273 0.10255953 -0.039901648 0.075107805 0.048594385 -0.09124921 -0.027723381 0.021189077 -0.05758872 0.03315721 -0.049849924 -0.034777965 0.034407225 0.049344376 0.0021280267 0.04804389 0.049763042 -0.010765973 0.04395464 0.07009749 0.035311755 -0.08247792 0.02865436 -0.07742298 0.026536534 -0.09283136 -0.002828782 -0.03192226 -0.045839906 0.06179331 -0.03631102 -0.098320335 0.041983664 0.07448383 0.0789609 0.024764668 -0.03886286 0.07598047 0.030829195 0.00081803766 0.0042839767 -0.047611088 -0.0072785504 0.07328608 -0.005809079 0.039782535 0.124908365 0.027627526 -0.01378324 0.03192506 0.055220958 -0.06396983 -0.05878308 0.05256728 -0.039511755 0.10620998 0.023188533 -0.0885578 -0.027341101 0.12168986 0.09192953 0.014304083 -0.056123067 -0.03374105 0.04175505 0.014926247 -0.019531485 -0.08756464
speech -0.08399845 0.0778018 -0.015257349 0.040147185 0.101056434 -0.02724678 -0.06404555 -0.115094274 -0.020099713 -0.08920836 -0.06800819 -0.093736626 -0.034672253 -0.09543823 -0.029452188 0.014534815 0.062780686 0.0005412482 0.059944946 -0.03730754 0.051333472 -0.045348473 0.11351401 -0.013613256 -0.042255882 -0.049579006 -0.05486814 0.028531753 0.108827956 -0.082777016 0.08057624 0.009322453 0.04760599 0.08766487 0.038786434 -0.11062707 0.10777313 -0.06091238 -0.039282314 0.008709638 -0.044080626 0.0014758686 -0.14962275 -0.14039585 0.099476725 -0.038574442 0.06898346 -0.034844704 -0.0007225297 0.02875098 0.061499864 -0.012439615 0.0018434355 -0.061956584 -0.05409516 -0.0807089 0.08064069 0.008909368 -0.113373466 -0.020416355 -0.062839314 0.07417891 -0.003134759 -0.0027303444 -0.08747636 0.054480538 0.061953265 -0.014650982 -0.02389275 0.1035645 0.0070347367 -0.04981096 0.103192225 -0.04644512 -0.06676099 0.0076910486 0.04411334 0.07266455 0.050505623 -0.07529781 0.02606988 -0.010584026 0.058291778 -0.0033001816 0.1148592 -0.010585537 0.07655716 0.034995515 -0.099633716 0.011089679 -0.013647658 0.024350256 -9.949385e-05 -0.061139215 -0.022105088 0.021376183 0.003080165 -0.0049089924 0.0064644194 -0.024811288
recognition -0.12196893 -0.0856113 0.05077586 0.020860473 0.013199781 0.06534706 -0.079115435 -0.01012776 -0.04561557 0.00793647 0.033149477 -0.055023596 -0.028260818 0.010749837 0.040780738 0.04541374 0.0655765 0.1270027 -0.060420573 0.012420551 -0.045838103 -0.023723084 0.010349787 0.034861997 0.038669076 -0.025584731 -0.047104973 0.11700811 0.07924455 0.019460063 0.055064775 -0.04441844 0.031051168 0.072691604 -0.030635627 -0.032406032 0.14348249 0.084280275 0.04647529 0.09967455 0.12025448 0.07236279 -0.030820007 0.015270855 0.021659974 0.047121875 0.061045505 0.018131005 0.061589345 -0.0017754845 0.07608342 0.052512396 -0.013620025 -0.114752546 0.025341442 -0.01991895 0.103923 -0.0884898 -0.057831664 0.0368082 0.052173767 0.04839798 -0.082041994 0.055994574 -0.038074743 -0.015891308 0.059027664 -0.032774016 0.026201505 -0.007994817 0.09350169 -0.05095538 0.07940384 -0.0011846608 -0.058025796 -0.016241899 0.04860543 0.050611768 -0.04266692 -0.07065494 -0.022122767 -0.05412623 0.02661366 -0.044350516 -0.06194969 0.05668899 0.13141754 0.04724338 -0.10724849 -0.024503905 0.051578946 0.0045711654 -0.004002602 -0.008415461 -0.10547222 0.043017685 -0.037339915 -0.046714045 -0.036627013 -0.067061156
and -0.104794435 3.223965e-05 -0.07569182 -0.030536693 0.008970687 0.022314185 -0.057704978 0.012396276 -0.13159555 -0.008350536 -0.04349595 0.017894441 0.0025159526 -0.03711521 0.10758619 -0.04653083 0.10901835 0.035068043 -0.07157374 -0.06433261 0.024306707 -0.01565797 -0.059927683 0.038645655 -0.034878694 0.062333316 0.10998109 0.12366018 -0.030042153 0.031244876 -0.057166684 -0.016730363 0.08788174 0.09620847 -0.0042390116 -0.039882656 0.11518961 0.06550393 -0.024041867 0.09692689 -0.007493227 0.0138692185 -0.014605181 0.008035531 -0.08840137 0.057861734 0.03555549 -0.03885943 0.105643116 0.038990546 -0.03113896 0.021821795 0.0024006628 -0.053775404 0.005987508 0.030279478 0.0902699 -0.045149688 -0.0017136188 0.09386255 0.095099084 0.06568964 -0.13938908 -0.072404645 0.09745205 0.031487085 0.092464775 -0.034646317 -0.03376711 -0.016766753 -0.03048943 -0.0038673433 0.0717332 0.025486818 0.003944223 0.016438292 -0.00046819908 0.07105656 0.04103369 0.037830506 -0.025422843 0.06807605 -0.006494387 -0.13172244 -0.034444172 0.08423619 0.061036825 -0.03480425 -0.06151375 -0.008129207 -0.0014609476 0.0707002 0.0041921535 -0.09053416 0.011711539 -0.00045047147 -0.05227423 -0.032856725 -0.081743516 -0.007016696
machine -0.063866496 -0.007817598 0.043458298 0.02633722 0.06178268 -0.047468662 0.039734498 -0.034873713 -0.0496999 -0.04938021 0.05872429 0.026878959 -0.07830319 -0.1071235 -0.0034804747 0.06160131 -0.086393155 0.07957656 -0.07454543 -0.040301938 -0.038987692 -0.13178855 0.11672896 0.031754423 -0.060423348 0.109984644 -0.05256538 -0.02401355 0.05634438 -0.090245545 0.00026570872 -0.04860906 0.1265381 0.05297063 0.011017763 -0.090477265 0.029561639 -0.014564521 -0.014257337 0.08935852 0.026523441 0.04881039 -0.064972095 -0.033041812 -0.019852478 0.05390462 0.0033616885 -0.05527186 0.0382466 0.06274318 -0.043336388 -0.09114244 0.002389098 -0.024447834 -0.09656014 0.031467192 0.0062858486 0.005715969 -0.07356704 0.06914457 -0.09325464 0.04022573 -0.030548235 -0.059979804 0.025266461 0.012698282 -0.027242865 -0.06557442 -0.06724225 0.012742195 -0.009976297 -0.009880563 0.038044993 0.06305835 -0.012363438 0.026290154 0.11370302 0.07297381 -0.018436167 0.012793891 -0.13190375 0.053626005 -0.034120973 -0.021573529 0.009352492 0.12233625 0.08075301 -0.023555864 -0.016854536 -0.010065874 0.027707137 -0.02699323 0.004367395 -0.10314405 0.032714464 0.08976537 -0.046086706 -0.022048144 -0.07699104 0.025028536
translation -0.007382783 -0.07566833 0.09421742 0.042218763 0.016659405 -0.070652686 -0.024025485 0.081290856 -0.02528166 0.028066065 0.011264585 0.038705666 -0.06999655 -0.09069239 -0.07380951 0.08345266 -0.016125368 0.0145457145 -0.081600145 0.017514728 -0.08322083 -0.027947744 0.011565861 0.0543431 0.026667915 0.07391927 -0.051867995 -0.0488378 0.015469722 -0.09527814 0.036054935 -0.089722656 -0.024758825 -0.046315942 -0.038202114 -0.12809044 0.045293353 -0.0315115 0.08771931 0.14720444 0.09075497 -0.00051806134 -0.015069804 0.021577155 -0.10022966 -0.06182234 0.023114532 0.0018880928 0.09341616 -0.046330966 -0.012041759 -0.01835703 0.053416766 -0.01138383 0.085841276 0.114840254 0.075463235 0.039558515 -0.09900136 0.0126428325 0.02494018 -0.027983159 -0.0007820625 0.037157726 -0.028495522 -0.07806627 -0.043869395 -0.09440102 -0.039374013 0.07270999 0.07694016 0.077431954 0.04881085 0.108777456 -0.06112062 -0.0012828493 0.10291379 0.0630236 -0.10886157 -0.006967943 0.05683537 0.044071544 -0.061067585 -0.0046293396 -0.016881945 0.06430604 0.10873421 -0.026839709 -0.033270955 -0.10175863 0.043684766 -0.0047300593 0.022465436 -0.044791393 -0.0628507 0.055192307 -0.08818233 -0.047008693 -0.12178828 -0.0041244617
have -0.075978026 -0.037012026 -0.07565369 -0.0008412707 -0.09942078 -0.054849412 -0.019673485 0.0834441 -0.11641266 -0.02541013 0.049891513 0.060787264 0.04005922 -0.0655318 0.07825057 0.0022743968 -0.046257548 -0.028118948 -0.010123025 0.016341563 -0.031489152 0.05972002 -0.017657964 0.06237904 0.029940158 0.03146011 0.09762154 -0.03751896 0.022255879 0.026006116 -0.005116233 -0.09088953 -0.007373127 0.051679008 0.040233437 -0.032339916 0.088197544 0.12687638 0.031619377 -0.0038066409 0.13906899 0.08809364 0.03955861 -0.034087628 -0.1424297 0.051314056 -0.059329987 0.051787984 0.09516454 -0.03233015 -0.04990478 -0.049968105 0.06761671 0.034558397 -0.036458153 0.10262483 -0.0029638403 0.0021346316 -0.048685197 0.06118889 0.034951624 -0.016076269 -0.060511272 0.067205206 0.04853137 -0.11527443 0.03284562 -0.031979762 0.09773968 0.031786572 0.031306777 0.114109635 -0.014359561 -0.09543426 -0.0073133875 -0.037805706 0.04717365 0.08846541 -0.13212498 -0.008364099 -0.039150424 -0.003648168 -0.14063516 0.023662124 -0.012023893 0.07139091 0.04364147 -0.007069122 -0.04815364 -0.06978617 -0.068911254 0.114382975 -0.07531763 -0.010933404 0.08424286 -0.08929404 -0.069214694 0.08204875 -0.047275677 0.08990998
become -0.04162018 -0.018270906 -0.020384034 -0.03611066 0.07772489 -0.08192751 0.034507137 0.13105652 0.009728311 -0.049513098 0.10885971 0.0566008 0.0402705 -0.04719847 0.012592758 0.039561037 -0.031310875 0.100014836 -0.0502105 -0.104175866 -0.06242777 0.041343503 0.0151953865 0.088504456 0.027051529 0.047274314 -0.028692903 -0.039248705 0.105800666 -0.0068299524 -0.04748336 -0.09193976 -0.0031502782 -0.000509306 -0.054402996 0.015253134 -0.029464101 -0.05144766 0.09096301 -0.040461905 0.09952834 0.13589562 -0.030951802 0.063965686 -0.10064665 0.017573198 -0.10434843 -0.04407191 0.08477958 0.028728276 -0.12524575 -0.0837425 0.045885224 0.045088287 -0.018103966 0.05418911 0.028770732 0.025842886 0.01022316 0.039178193 -0.049060564 -0.046183836 0.013518248 -0.040193997 0.005597568 0.01123425 -0.052723918 0.06138307 -0.014074053 -0.02836667 -0.12543122 0.09304145 0.0415121 -0.018284645 -0.024502138 0.018896 -0.020879675 0.11320589 -0.10990614 0.000815401 -0.1034695 -0.021802163 -0.040944833 0.028577538 -0.10122032 -0.011784196 -0.0035753655 0.08123293 0.014296339 -0.09363333 -0.12219872 0.0048121107 -0.03782985 -0.09708492 0.03963196 -0.017703107 0.018791238 0.011073337 0.012516514 0.056916635
possible -0.008680671 -0.08816965 0.08966898 0.013684043 0.00560388 -0.05700457 -0.04032616 0.06382317 0.02970874 0.047985576 -0.045743745 0.11404741 -0.03282559 -0.10054959 -0.010326786 0.06318788 -0.038718853 -0.04882527 -0.02248914 0.0013006588 -0.025236066 -0.009613958 0.030609196 0.079594426 -0.076631896 0.01092653 -0.045347758 -0.084728636 0.016092625 -0.11497766 -0.007420759 -0.1147613 -0.06094712 -0.024923649 -0.018962057 -0.0073086484 -0.017836904 -0.032599073 0.019115347 0.11317964 0.12609379 -0.0064785564 0.019679088 0.06097083 -0.114657655 -0.04684617 -0.034207113 -0.05276559 0.096527666 0.018308677 -0.04847351 0.023486681 -1.4521531e-05 0.074742794 -0.052073885 0.048010852 -0.008403759 0.06575818 0.045524817 -0.03454133 0.04865769 -0.0571522 0.031809762 -0.008795773 -0.11246032 -0.028875044 -0.11502982 0.022835786 0.023722414 0.11085341 -0.017825209 0.06391198 0.039752554 0.024774706 -0.052001547 0.046907295 0.054302447 -0.0006968721 -0.06968989 -0.0043913852 0.056900818 0.023906985 -0.055317987 0.061916634 -0.09257496 0.0025240323 -0.0009354631 -0.038656946 0.0848316 -0.11517572 -0.021517955 -0.035079643 -0.08494435 -0.08785617 0.027911244 0.031365596 -0.07140304 -0.043930084 -0.048744008 0.10584476
